-2.772012871476137 -0.9049889171564391 -4.154801134750041 0.48783379869516175 2.101366931691981 5.55380794356738 3.986105268305762 -3.899959818273651 5.711181737999755 -3.9858875773131417 -4.017989071269118 -0.8458909866015372 -4.13530658831672 3.64949073831119 -2.919578020937412 0.9188562725193918 1.8455894586415695 4.261040443835196 -1.8188233468792543 3.8626062020780267 -1.0580796973820008 3.2952370938377875 -3.035858152021192 3.0303171238793993 -4.952335543431637 -3.923545474242379 -0.8845135587003226 0.12211727552893592 3.525266429928296 -4.464991975802647 1.126495785907645 1.3993215511332942 3.30067784519229 2.5504435267845773 -2.280044436684554 0.05473682291150972 -0.7096469795566493 5.962407081052891 -3.616074550166641 1.788559193637477 0.7313427607745462 -4.672194672289738 -0.23870584592379984 -0.9705900666052676 0.8010454449154185 0.6230716752579619 -0.24420463587377572 -4.467957748430121 -0.9276346901829191 -1.6957671097818814 -4.82876920857965 2.9690033610833897 0.8529541307436173 0.44508132455759153 -3.499554734618326 1.6130194457458122 -3.696112291588756 2.0751231963510888 5.124157910904417 2.2801177619755046 2.423565165281488 0.3340989682540094 5.667049554414978 5.370492326428554 1.516795547677063 4.648729737958595 1.5895739111387996 2.104860247889798 -1.3530349136800948 -4.180035027174801 0.2687534025653546 3.908549016787756 -4.209142609588773 -1.3146218813590123 -0.16021790766996435 1.3437965432811296 3.981135215558151 4.891462509985853 5.932556903482135 -2.967261122811542 -0.36933833321540455 3.274461912998813 0.14332283903080612 2.6493015801017057 0.4857776549195467 -2.594026806428684 0.6314095234285038 -3.712296250341495 2.252326368325722 -0.9890632114637556 
-3.3753974500318726 -4.661474068370884 -4.121352763908585 -0.7892590808734417 -0.14600892329778503 -4.5797158945352265 5.763943803470454 1.8830348704528932 -0.9798089455630237 -1.0748029976246274 -3.211646899682883 2.8624653332287773 -0.6823559801432015 2.342321410136706 0.03273271761503338 -2.76708518597467 4.812254870079917 4.719477210424833 0.37160296947414384 1.581939024475517 0.07992386633821091 4.4173742912600655 5.781866515507263 -3.1980319923588123 4.969595500892009 -3.304907575675518 0.2128568178523027 3.830451584250971 2.6542422680304405 5.645565315778157 -3.79005592999024 0.6224992396607263 -0.7232383125570792 4.57295198935423 5.1743588258902555 -1.35532250232405 2.4850662051131627 2.0707803058119056 5.176074395717826 0.26750118673567336 -0.018296749015834557 1.820482210721277 -4.385484609282503 -1.3832344782237707 -0.11185569339965884 -4.515562262656487 -4.256457427013807 -2.2797603364983177 5.242438147994148 3.0158852035217354 -2.857408565028135 4.156351182788814 -3.6887701103081243 5.250044823609985 0.6250256601992223 5.8753707123583165 3.603196852704322 2.7765489928765286 3.82768910070226 -0.5787928188326781 -4.479234078596277 -3.177237009196433 3.8223285204867636 -0.5666929530523737 -3.519482430843968 -4.799178488307779 2.5299813156958644 5.053255221202864 -1.9299938378773671 0.28819861031792193 3.5036062518106235 -3.3004477765155555 -4.610241724671777 -3.477627505543095 0.7721658762108472 -4.393346847698565 2.1540363012923667 1.9946376792741516 5.911043556405758 4.550722758110247 -2.6075057345411987 -3.5736423643940913 -3.6808864011131077 -1.6953196348605628 4.70716532901459 -1.8970538675310826 -0.1580395569380979 1.5789740237757233 -0.004727971473371895 -2.7733932019549523 
5.383671678213258 -0.487862785264749 -0.6518427355869401 -3.371649866209693 -3.0036897454587366 5.176554652425139 -1.5198144116310601 5.853053836665225 5.12659998210243 3.059978053446665 3.528771599547433 -0.7016805764977594 -4.766458045734022 -3.9278015263924333 -0.6022532829041065 0.34862646222426275 0.8686013399927077 4.308898645271595 -4.008921600050417 -2.69923053729834 -0.4682065978215615 4.581083878540429 -1.2974860820687737 5.324815431513908 2.1824187206009267 -1.4114072909648518 0.3890209281700061 -4.253198400600883 -3.807616134129223 5.580071034008995 -3.238044886734646 -4.4248579371174355 2.7829674839543452 2.3993999190117865 3.6796919772763985 -3.577797675307883 -1.4174220120354533 -2.0300612785550176 4.219005737750814 -1.2042581941396246 -4.116528738865612 2.5130629790391774 5.639793748305639 3.1519169915317047 -0.5404148878516368 -1.863659185534833 -4.561205204508816 1.1122834376519224 4.435568253102678 3.8593119188967773 3.612748032305987 -4.148280853492015 -2.331233073537951 -1.3288018126030714 0.020009514399482953 -1.1375561719344276 -1.5786391542694211 -2.1650061972995784 5.34192939944427 -1.908706940022466 5.759018719493607 1.366247297417404 -2.398636956905036 3.833152518479631 3.1153734474057693 5.422469522210626 0.49548545125409227 2.7429485560487334 2.8082971261211824 5.240463609568424 -1.0563650781059786 -1.098168124682216 0.9843882500379895 0.2539934880706234 0.23821708436900746 -3.959812059429609 -2.4977428821816496 -1.886923236414618 -4.98224344087917 -2.219155804839562 2.6431301304792525 3.508795187311101 3.955984215075258 4.120340768427866 -4.741025689546035 2.983899667665189 -2.4205933911333117 2.3143707843569814 5.033765393841083 -3.720416252697197 


-44.51189246370753
-40.624510555409195
-45.55728490126461

2.23268718876564
1.4605852851245462
5.5269364391752305

-38.25281335884316
-34.2048090496309
-38.026764883469035

2.6859001708730688
-2.540273325633996
5.399244411738904

